tree
version=v3
num_class=1
num_tree_per_iteration=1
label_index=0
max_feature_idx=3
objective=regression
feature_names=open close high low
feature_infos=[1.6428942680358887:5.8440051078796387] [1.6562643051147461:5.8321309089660645] [1.6773166656494141:5.8577313423156738] [1.6348659992218018:5.7787423133850098]
tree_sizes=2696 2695 2716 2699 2710

Tree=0
num_leaves=31
num_cat=0
split_feature=0 1 1 0 0 1 0 1 2 0 3 1 2 0 1 0 0 1 0 1 1 0 1 1 0 0 1 0 1 0
split_gain=1712.82 6104.35 5184.58 6706.41 3173.62 5694.81 4105.39 2042.81 9026.82 2560.33 1914.56 1275.69 6241.7 3251.79 1116.1 2248.04 2197.98 840.727 694.203 705.145 620.325 1413.52 1964.78 1574.48 3129.95 1259.95 814.166 2187.23 1816.49 1420.02
threshold=3.9127942323684697 4.0440125465393075 3.6551755666732793 3.6313606500625615 4.35758399963379 4.7546780109405526 4.9869046211242685 3.4961487054824834 3.5127900838851933 3.5191649198532109 3.7378077507019047 3.3074512481689458 3.3259801864624028 3.3139734268188481 3.2592313289642338 3.2698644399642949 3.2509691715240483 3.6992083787918095 3.4147274494171147 3.3772627115249638 3.2216393947601323 3.1529980897903447 3.1707688570022587 3.0568230152130131 3.0178267955780034 3.0916625261306767 2.9583481550216679 2.8745968341827397 2.7995502948760991 2.7650260925292973
decision_type=2 2 2 2 2 2 2 2 2 2 2 2 2 2 2 2 2 2 2 2 2 2 2 2 2 2 2 2 2 2
left_child=2 -2 3 7 -3 -6 -7 8 11 -9 17 12 14 -13 16 -16 20 -4 19 -15 21 23 -23 24 26 -25 27 28 29 -1
right_child=1 4 10 -5 5 6 -8 9 -10 -11 -12 13 -14 18 15 -17 -18 -19 -20 -21 -22 22 -24 25 -26 -27 -28 -29 -30 -31
leaf_value=-0.18237211578695878 -1.0100422101715028 0.28842809043842987 0.19358310452957059 -1.0317308344117038 -1.0330441493372444 0.34838567007228549 -0.48685848241149809 0.51266641269684232 -1.2325606563786471 -0.11260142917117553 -0.060894163553874808 0.38532799406138729 -1.0220399869371082 -0.21869394752250287 0.30114918622660314 -0.28247080423284265 -0.68596027491938538 0.62678320833022572 -0.33352491749029062 0.050051876140511764 0.018104675263686781 -0.79637824580478656 -0.2214741734464547 0.36370281616048772 -0.77643929473813189 -0.10738509872766662 0.02144012698237438 -0.51787935854705502 0.12117960777295303 -0.53297351039163599
leaf_weight=774 29 26 21 24 22 28 31 22 21 64 37 33 23 52 33 33 23 24 43 46 34 23 42 22 23 40 45 50 48 30
leaf_count=774 29 26 21 24 22 28 31 22 21 64 37 33 23 52 33 33 23 24 43 46 34 23 42 22 23 40 45 50 48 30
internal_value=-0.192818 -0.366595 -0.181898 -0.202422 -0.192202 -0.346479 -0.0904714 -0.189362 -0.203519 0.0473508 0.205548 -0.188268 -0.206018 -0.0614681 -0.190634 0.00933919 -0.202071 0.424623 -0.166037 -0.0925479 -0.192231 -0.19875 -0.424902 -0.184506 -0.200119 0.0597751 -0.186122 -0.196477 -0.177616 -0.195454
internal_weight=0 136 1630 1548 107 81 59 1524 1438 86 82 1417 1243 174 1220 66 1154 45 141 98 1131 1097 65 1032 970 62 947 902 852 804
internal_count=1766 136 1630 1548 107 81 59 1524 1438 86 82 1417 1243 174 1220 66 1154 45 141 98 1131 1097 65 1032 970 62 947 902 852 804
is_linear=0
shrinkage=1


Tree=1
num_leaves=31
num_cat=0
split_feature=0 1 1 0 0 1 1 2 0 3 2 1 0 0 1 0 0 1 1 0 1 1 0 0 0 1 0 1 1 1
split_gain=1545.82 5509.17 4679.09 6052.53 2892.65 3923.59 1843.63 8146.7 2310.7 1727.89 1316.85 1158.57 6196.08 3784.6 1286.56 1486.62 889.749 758.756 719.889 1453.98 1628.17 1420.97 2824.78 1172.8 1137.11 734.785 1986.89 1760.45 1470.54 594.171
threshold=3.9127942323684697 4.0440125465393075 3.6551755666732793 3.6313606500625615 4.2428696155548105 4.8350918292999276 3.4961487054824834 3.5127900838851933 3.5191649198532109 3.7378077507019047 5.2928855419158944 3.2718789577484135 3.2607067823410039 3.2832089662551884 3.3374118804931645 3.3716510534286503 3.3139734268188481 3.6992083787918095 3.2216393947601323 3.1529980897903447 3.1707688570022587 3.0568230152130131 3.0178267955780034 3.2165824174880986 3.0916625261306767 2.9583481550216679 2.8480803966522221 2.8081177473068242 2.8996530771255498 3.5916980504989628
decision_type=2 2 2 2 2 2 2 2 2 2 2 2 2 2 2 2 2 2 2 2 2 2 2 2 2 2 2 2 2 2
left_child=2 -2 3 6 -3 -6 7 11 -8 17 -7 12 18 -13 16 -16 -15 -4 19 21 -21 22 25 -20 -23 26 27 -1 -28 -10
right_child=1 4 9 -5 5 10 8 -9 29 -11 -12 13 -14 14 15 -17 -18 -19 23 20 -22 24 -24 -25 -26 -27 28 -29 -30 -31
leaf_value=0.0011174184039677724 -0.77636301101281724 0.54279845351353284 0.36708100452309567 -0.79696723880867171 -0.47162535311210729 0.44225302720069887 0.67021014431322168 -0.98775556538076636 -0.045770042026654273 0.12532759747795158 -0.10207281024660915 0.53572931032006943 -0.75085048824548728 0.013783780557494012 0.32628642365019372 -0.023415562419524028 -0.36504068807248147 0.7786211078055203 0.47225034946487066 -0.57338226879744425 -0.054263170735529546 0.52869473773647435 -0.55444026667138802 -0.0086285054683685313 0.08116120703518391 0.20354517241319023 -0.59628025196168732 0.36332374300275533 -0.084458210412412887 0.26648784196376801
leaf_weight=808 29 20 21 24 42 25 22 21 39 37 20 42 28 31 47 86 31 24 21 23 44 22 23 32 40 45 23 35 36 25
leaf_count=808 29 20 21 24 42 25 22 21 39 37 20 42 28 31 47 86 31 24 21 23 44 22 23 32 40 45 23 35 36 25
internal_value=0 -0.165088 0.0103737 -0.00912373 0.000584801 -0.124062 0.00328325 -0.0101656 0.22816 0.378448 0.20033 0.00432234 -0.0159395 0.105204 0.0124757 0.100163 -0.175628 0.586569 0.0019229 -0.00675702 -0.232468 0.00789671 -0.00693642 0.181908 0.239963 0.00636093 -0.00347643 0.0161556 -0.283982 0.0762057
internal_weight=0 136 1630 1548 107 87 1524 1438 86 82 45 1417 1180 237 195 133 62 45 1152 1099 67 1032 970 53 62 947 902 843 59 64
internal_count=1766 136 1630 1548 107 87 1524 1438 86 82 45 1417 1180 237 195 133 62 45 1152 1099 67 1032 970 53 62 947 902 843 59 64
is_linear=0
shrinkage=0.05


Tree=2
num_leaves=31
num_cat=0
split_feature=0 1 1 0 0 1 0 1 2 0 3 1 2 0 1 0 0 1 1 0 1 1 0 0 1 0 1 0 1 0
split_gain=1395.11 4972.03 4222.88 5462.41 2674.17 4849.61 3725.52 1663.88 7352.4 2085.41 1559.42 1073.68 5316.12 2781.91 912.23 1966.04 1795.58 684.778 606.68 1027.95 1716.35 1282.43 2549.36 1026.24 663.144 1812.56 1526.68 1266.29 1068.18 1525.46
threshold=3.9127942323684697 4.0440125465393075 3.6551755666732793 3.6313606500625615 4.35758399963379 4.7546780109405526 4.9869046211242685 3.4961487054824834 3.5127900838851933 3.5191649198532109 3.7378077507019047 3.3074512481689458 3.3259801864624028 3.3139734268188481 3.2592313289642338 3.2509691715240483 3.2462987899780278 3.6992083787918095 3.2216393947601323 3.1529980897903447 3.1707688570022587 3.0568230152130131 3.0178267955780034 3.0916625261306767 2.9583481550216679 2.8745968341827397 2.7995502948760991 2.7650260925292973 2.6635395288467412 2.6432706117630009
decision_type=2 2 2 2 2 2 2 2 2 2 2 2 2 2 2 2 2 2 2 2 2 2 2 2 2 2 2 2 2 2
left_child=2 -2 3 7 -3 -6 -7 8 11 -9 17 12 14 -13 16 -16 18 -4 19 21 -21 22 24 -23 25 26 27 28 29 -1
right_child=1 4 10 -5 5 6 -8 9 -10 -11 -12 13 -14 -15 15 -17 -18 -19 -20 20 -22 23 -24 -25 -26 -27 -28 -29 -30 -31
leaf_value=0.0091703831384688048 -0.73754490567692399 0.44174871694010043 0.34872695656404612 -0.75711888701965413 -0.77463362095030874 0.51324583409087998 -0.28241825262385029 0.63669964657588451 -0.93836777153469275 0.072395411572142618 0.11906122186699429 0.53368998501788489 -0.76526973610338966 0.023714316354945621 0.59667382165789606 0.0028682805111874708 -0.40383244987045019 0.73969005395968757 0.22334775373339655 -0.54471315300982937 -0.0050692508860332216 0.50226000371039847 -0.52671826455904092 0.07710314899682999 0.19336792164378697 -0.29588444343209269 0.2877929544541985 -0.32121231928467753 0.20550913914194099 -0.32488453769021564
leaf_weight=674 29 26 21 24 22 28 31 22 21 64 37 33 23 141 20 46 28 24 30 23 41 22 23 40 45 50 48 30 64 36
leaf_count=674 29 26 21 24 22 28 31 22 21 64 37 33 23 141 20 46 28 24 30 23 41 22 23 40 45 50 48 30 64 36
internal_value=0 -0.156834 0.00985505 -0.00866755 0.000555556 -0.141062 0.095185 0.00311909 -0.00965731 0.216752 0.359526 0.00410622 -0.0121778 0.120434 0.00201986 0.182809 -0.00831992 0.557241 0.00151521 -0.00455685 -0.199004 0.00750187 -0.0065896 0.227965 0.00604288 -0.00330261 0.0138677 -0.00248606 0.00986767 -0.00776761
internal_weight=0 136 1630 1548 107 81 59 1524 1438 86 82 1417 1243 174 1220 66 1154 45 1126 1096 64 1032 970 62 947 902 852 804 774 710
internal_count=1766 136 1630 1548 107 81 59 1524 1438 86 82 1417 1243 174 1220 66 1154 45 1126 1096 64 1032 970 62 947 902 852 804 774 710
is_linear=0
shrinkage=0.05


Tree=3
num_leaves=31
num_cat=0
split_feature=0 1 1 0 0 1 0 1 2 0 3 1 0 0 1 0 0 0 1 1 1 1 0 1 1 0 1 0 1 1
split_gain=1259.08 4487.26 3811.15 4929.83 2413.44 4469.65 4881.79 1501.65 6635.54 1882.08 1407.38 978.397 5351.1 2629.47 961.483 2242.62 2214.58 713.098 618.012 536.239 489.292 456.894 927.727 1549.01 1168.27 2300.59 1134.49 1626.9 1458.9 1032.41
threshold=3.9127942323684697 4.0440125465393075 3.6551755666732793 3.6313606500625615 4.35758399963379 4.7971031665802011 4.9869046211242685 3.4961487054824834 3.5127900838851933 3.5191649198532109 3.7378077507019047 3.3171328306198125 3.3225307464599614 3.3139734268188481 3.2541743516922002 3.2462987899780278 3.2462987899780278 3.4147274494171147 3.6992083787918095 3.5916980504989628 3.4020950794219975 3.2216393947601323 3.1529980897903447 3.1707688570022587 3.0302251577377324 2.9897943735122685 2.9504675865173344 2.8480803966522221 2.8081177473068242 3.004578828811646
decision_type=2 2 2 2 2 2 2 2 2 2 2 2 2 2 2 2 2 2 2 2 2 2 2 2 2 2 2 2 2 2
left_child=2 -2 3 7 -3 -6 -7 8 11 -9 18 12 14 -13 16 -16 21 20 -4 -11 -15 22 24 -24 25 26 27 28 -1 -27
right_child=1 4 10 -5 5 6 -8 9 -10 19 -12 13 -14 17 15 -17 -18 -19 -20 -21 -22 -23 23 -25 -26 29 -28 -29 -30 -31
leaf_value=0.0010386238214345896 -0.70066765742055304 0.4196612782203234 0.33129060626739548 -0.71926293031622968 -0.64501133390835363 0.70558244723149333 -0.26829733699560165 0.60486466342752632 -0.89144940489814395 -0.047101309666266813 0.11310816503859855 0.60272180326282987 -0.80241873661677043 0.05134070879805272 0.59922903017564255 0.014041093993000686 -0.47503142237663271 -0.13328931872234789 0.70270555329819517 0.24954367852211001 0.3252122082348381 0.2002101075436388 -0.51747749655143083 -0.004815790366108825 0.2028461424607626 -0.63256888955831536 0.3112144264082114 -0.28453625704472268 0.33076790658491001 -0.12453213402070105
leaf_weight=808 29 26 21 24 28 22 31 22 21 39 37 24 21 73 22 64 25 43 24 25 21 28 23 41 71 20 30 48 35 20
leaf_count=808 29 26 21 24 28 22 31 22 21 39 37 24 21 73 22 64 25 43 24 25 21 28 23 41 71 20 30 48 35 20
internal_value=0 -0.148992 0.00936229 -0.00823417 0.000527778 -0.134009 0.135955 0.00296313 -0.00917444 0.205915 0.341549 0.00390091 -0.0109742 0.119945 0.00248354 0.16374 -0.00958616 0.0353714 0.529379 0.0687756 0.112525 0.000766269 -0.00432901 -0.189054 0.00712678 -0.00733324 0.00878912 -0.00139355 0.0147285 -0.378551
internal_weight=0 136 1630 1548 107 81 53 1524 1438 86 82 1417 1256 161 1235 86 1149 137 45 64 94 1124 1096 64 1032 961 921 891 843 40
internal_count=1766 136 1630 1548 107 81 53 1524 1438 86 82 1417 1256 161 1235 86 1149 137 45 64 94 1124 1096 64 1032 961 921 891 843 40
is_linear=0
shrinkage=0.05


Tree=4
num_leaves=31
num_cat=0
split_feature=0 1 1 0 0 1 0 1 2 0 0 1 1 0 0 1 0 0 0 1 0 1 1 0 0 0 1 0 1 0
split_gain=1136.32 4049.75 3439.56 4449.17 2192.79 3404.64 2291.71 1355.24 5988.57 1698.58 1316.75 1665.01 906.067 4931.51 2984.1 940.517 1583.66 816.327 645.687 548.907 1079.53 1188.43 1054.36 2099.03 935.547 754.596 596.231 1566.31 864.757 1437.95
threshold=3.9127942323684697 4.0440125465393075 3.6551755666732793 3.6313606500625615 4.2428696155548105 4.9801940917968759 4.7486188411712655 3.4961487054824834 3.5127900838851933 3.5191649198532109 3.6759531497955327 3.8305792808532719 3.2718789577484135 3.2607067823410039 3.2698644399642949 3.3209587335586552 3.3268958330154423 3.3139734268188481 3.4147274494171147 3.2216393947601323 3.1529980897903447 3.1707688570022587 3.0302251577377324 3.0128053426742558 3.2165824174880986 3.0916625261306767 2.9583481550216679 2.9282959699630742 2.8853162527084355 2.8314390182495122
decision_type=2 2 2 2 2 2 2 2 2 2 2 2 2 2 2 2 2 2 2 2 2 2 2 2 2 2 2 2 2 2
left_child=2 -2 3 7 -3 6 -6 8 12 -9 -4 -12 13 19 -14 17 -17 -16 -18 20 22 -22 23 26 -21 -24 27 28 29 -1
right_child=1 4 10 -5 5 -7 -8 9 -10 -11 11 -13 14 -15 15 16 18 -19 -20 24 21 -23 25 -25 -26 -27 -28 -29 -30 -31
leaf_value=0.010304226952789016 -0.66563427746295933 0.47258802387863402 0.65535834431648254 -0.68329977293809252 -0.070665040810902913 0.28249682100380169 -0.73404577672481541 0.57462143464521931 -0.84687693686712362 0.065336859866511082 -0.043234154675155879 0.48472483066975008 0.58772060876643217 -0.66985370452914927 0.0034346212003682113 0.50985755026340485 0.10977173841092736 -0.38117124036123812 -0.12662485089412956 0.41820417699359713 -0.49160362948946984 -0.048093331097201875 0.38326277303198975 -0.468689366367956 -0.011288841557689012 0.053270468642798864 0.20733738226549969 -0.37111085312707082 0.28735783607181581 -0.4086663776919956
leaf_weight=826 29 20 22 24 30 34 23 22 21 64 32 28 27 28 37 20 88 22 43 21 23 44 30 24 32 41 35 28 27 21
leaf_count=826 29 20 22 24 30 34 23 22 21 64 32 28 27 28 37 20 88 22 43 21 23 44 30 24 32 41 35 28 27 21
internal_value=0 -0.141542 0.00889418 -0.00782246 0.000501386 -0.108024 -0.358547 0.00281498 -0.00871572 0.195619 0.324472 0.203147 0.00370586 -0.0142125 0.0929197 0.0293024 0.095445 -0.139978 0.0321759 0.00172322 -0.00585614 -0.200343 0.00677044 -0.00696658 0.158888 0.192704 0.00485983 -0.00299683 0.00879629 -8.3474e-05
internal_weight=0 136 1630 1548 107 87 53 1524 1438 86 82 60 1417 1180 237 210 151 59 131 1152 1099 67 1032 961 53 71 937 902 874 847
internal_count=1766 136 1630 1548 107 87 53 1524 1438 86 82 60 1417 1180 237 210 151 59 131 1152 1099 67 1032 961 53 71 937 902 874 847
is_linear=0
shrinkage=0.05


end of trees

feature_importances:
open=71
close=67
high=8
low=4

parameters:
[boosting: gbdt]
[objective: regression]
[metric: l2,auc,l1,binary_logloss]
[tree_learner: serial]
[device_type: cpu]
[data: ]
[valid: ]
[num_iterations: 5]
[learning_rate: 0.05]
[num_leaves: 31]
[num_threads: 0]
[deterministic: 0]
[force_col_wise: 0]
[force_row_wise: 0]
[histogram_pool_size: -1]
[max_depth: 20]
[min_data_in_leaf: 20]
[min_sum_hessian_in_leaf: 0.001]
[bagging_fraction: 0.8]
[pos_bagging_fraction: 1]
[neg_bagging_fraction: 1]
[bagging_freq: 5]
[bagging_seed: 3]
[feature_fraction: 0.9]
[feature_fraction_bynode: 1]
[feature_fraction_seed: 2]
[extra_trees: 0]
[extra_seed: 6]
[early_stopping_round: 0]
[first_metric_only: 0]
[max_delta_step: 0]
[lambda_l1: 0]
[lambda_l2: 0]
[linear_lambda: 0]
[min_gain_to_split: 0]
[drop_rate: 0.1]
[max_drop: 50]
[skip_drop: 0.5]
[xgboost_dart_mode: 0]
[uniform_drop: 0]
[drop_seed: 4]
[top_rate: 0.2]
[other_rate: 0.1]
[min_data_per_group: 100]
[max_cat_threshold: 32]
[cat_l2: 10]
[cat_smooth: 10]
[max_cat_to_onehot: 4]
[top_k: 20]
[monotone_constraints: ]
[monotone_constraints_method: basic]
[monotone_penalty: 0]
[feature_contri: ]
[forcedsplits_filename: ]
[refit_decay_rate: 0.9]
[cegb_tradeoff: 1]
[cegb_penalty_split: 0]
[cegb_penalty_feature_lazy: ]
[cegb_penalty_feature_coupled: ]
[path_smooth: 0]
[interaction_constraints: ]
[verbosity: 0]
[saved_feature_importance_type: 0]
[linear_tree: 0]
[max_bin: 255]
[max_bin_by_feature: ]
[min_data_in_bin: 3]
[bin_construct_sample_cnt: 200000]
[data_random_seed: 1]
[is_enable_sparse: 1]
[enable_bundle: 1]
[use_missing: 1]
[zero_as_missing: 0]
[feature_pre_filter: 1]
[pre_partition: 0]
[two_round: 0]
[header: 0]
[label_column: ]
[weight_column: ]
[group_column: ]
[ignore_column: ]
[categorical_feature: ]
[forcedbins_filename: ]
[precise_float_parser: 0]
[objective_seed: 5]
[num_class: 1]
[is_unbalance: 0]
[scale_pos_weight: 1]
[sigmoid: 1]
[boost_from_average: 1]
[reg_sqrt: 0]
[alpha: 0.9]
[fair_c: 1]
[poisson_max_delta_step: 0.7]
[tweedie_variance_power: 1.5]
[lambdarank_truncation_level: 30]
[lambdarank_norm: 1]
[label_gain: ]
[eval_at: ]
[multi_error_top_k: 1]
[auc_mu_weights: ]
[num_machines: 1]
[local_listen_port: 12400]
[time_out: 120]
[machine_list_filename: ]
[machines: ]
[gpu_platform_id: -1]
[gpu_device_id: -1]
[gpu_use_dp: 0]
[num_gpu: 1]

end of parameters

pandas_categorical:[]
